{
  "weights_input_hidden": [
    [
      -0.20507629949682413, 0.46592947702046006, -0.07584057357587935,
      -0.2696369052373459, 1.3344275096807445, -1.0390770717254,
      -1.644888547250438, 0.6297069449746, -0.013513916411432542,
      -1.7690533469926188, -0.026698236047206225, 1.692115580802823,
      -0.24056893167042037, 0.6434918325425216, -0.6876685081429124,
      -0.13892824405598536
    ],
    [
      0.6476753601732135, -0.08779345659202248, 1.405753643991949,
      0.6666971515457933, 1.2398284447789873, -0.6718922160991301,
      -0.8819377897137686, -2.798094629279969, -1.1259718071773024,
      1.055155623401372, 0.7402963416841998, -0.6604269967413047,
      1.159134071853206, -0.40745188569204344, 0.29763005466733566,
      0.4020891468889648
    ],
    [
      2.3146178522551897, -1.7510969911614036, 2.7863755876077603,
      1.232664816141936, 0.2046962125099808, -1.2132565167462195,
      -0.6135818262957045, 0.6673768168825625, -3.1152249265933047,
      -0.3585302560667665, 1.9545937789936505, 1.8537010473629851,
      -0.52979234270926, 0.29366197768226515, 0.4825678212798301,
      0.5141728077852692
    ],
    [
      0.4213402102170898, -2.2227871193169917, -1.163099971244964,
      0.7031860007980664, 2.2359284783159192, 0.6399783947611555,
      -0.04225434475552314, -0.6936824326450572, -1.0311503680973761,
      -1.0761677456260539, -0.22222320119150835, -0.33056152838111125,
      -0.8350819390745818, 1.1284828782056409, -0.1428945404244384,
      -0.8832605491810748
    ],
    [
      -0.14124036749184715, -0.3822041550206906, -1.1357202076649047,
      0.6039137869817669, 1.4412723532285865, -1.3906387007260217,
      -1.5815971331112086, 0.6049354830518521, -0.01754611392525096,
      -0.41449190046806383, -0.5015483664304536, 1.058082768505226,
      -0.39688936736296104, 1.1972180173787799, -0.9251093028752798,
      -0.4508150871986438
    ],
    [
      0.9887514306626657, -0.7939518416344258, -2.6422791969570287,
      -0.2113279066661229, -0.4111750880781881, -0.9444935762984739,
      -0.8187841316031184, 2.0948452167385154, -1.4000587545431424,
      -0.040586224077704736, -0.035760064099533806, 0.13875953653630263,
      0.3235280429181365, -0.24776690297004877, 1.7346733925979225,
      0.8783778851471314
    ],
    [
      1.1462132630243222, -0.3338412078911883, 1.433254900539811,
      0.6408656836078186, -0.6894775740997439, -0.5808724193108376,
      2.0942955900629516, -0.35136072117789985, 0.2949370001278461,
      1.1649175739930475, -2.1426973316899094, 0.27468087674031794,
      -0.6421466565018725, 1.1407042436280401, -0.09376473867676538,
      -0.42584762459810216
    ]
  ],
  "weights_hidden_output": [
    [0.2432996073865079, -1.68299753405257, -0.34386716740733353],
    [-1.225129698805066, -1.137268409814731, 0.05719467232696451],
    [0.1983162519563204, -0.6792206780413201, 0.16256041613242977],
    [0.19959547618158588, 0.5779036575704835, -1.148650264600638],
    [0.38173866274378915, -0.17997186290846, -0.009303606968284361],
    [0.8906921480887726, -0.5267926889244396, 0.025655232402034482],
    [-0.7868871749117688, 0.6327243449125824, -1.361847073739581],
    [-0.3411307666988398, -0.23540195383096407, 1.9522066139443508],
    [0.24632016531840195, 0.38111959262274586, 0.906566628003369],
    [-1.1186269011614516, 0.7725564632143866, 1.0407748607794014],
    [0.007922124605896363, -0.4316088600284238, 0.6712017839912738],
    [-0.43982214582187246, 1.2949882624353517, -0.6652870623811571],
    [0.8670901246056568, -0.4805044765592582, 0.7459285682834278],
    [1.2631296578905062, 1.3427454861017747, -0.5198731850021413],
    [0.004341674323328826, 0.4589481587641916, -0.39811250980166485],
    [-1.3954847092324636, -0.562518437375928, 0.2895007536798026]
  ],
  "bias_hidden": [
    -1.3774425205265175, 0.9495700161846277, -0.1749199043170795,
    0.060003304483920605, 1.8367430158513065, -1.3367672666612807,
    -0.8451856918087333, 0.0016791633076274348, 0.9468856527261542,
    0.26241258794210154, -1.371592222096892, -0.3518429304798555,
    0.7549806120482274, -0.7075813167679545, -1.6654464220703544,
    -1.1255735640108375
  ],
  "bias_output": [2.63612373685533, 0.369036154924569, -2.340028891980837],
  "generation": 84,
  "best_lap": 0,
  "fitness": 2.978771519687215
}
