{"weights_input_hidden": [[-0.4522385392490016, 4.064157497536596, 5.09048038400077, -3.016077650806496, -1.8698066663870017, -3.201480089163274, 1.7469572017389081, -0.3908582872766143, 3.091761624398921, -5.356110992097004, 1.2334725868557836, -2.4040212814089466, -4.228304797250672, 0.030147985207110595, -1.7375806283220723, -3.3340228260138605], [3.530565622534087, -1.1217586651104026, 0.9021342046151916, 0.27638514502302525, -1.5763089630348768, 0.518179329109715, 2.1412407291753355, 2.5199352904057037, -0.8633055489530884, 1.4903199424806524, -0.1459241538699627, -0.14373996688143864, 1.6364087053781613, -0.8931201366740318, 1.186672978093042, -3.6564841532145147], [-3.3635178127368315, -2.7393075208846422, -1.5080905637040802, -2.762645816110282, 1.499664289143328, 0.004436984007350375, 4.27982406697677, 4.010256539064461, -5.2673224501101155, 3.422018842763386, 4.666234210233937, 0.17398431984342733, -0.9054524029588497, 0.8161688422222165, 2.3807755737407827, 0.5506174817373993], [-0.9188894948293391, 5.189758474058116, -2.523718249757011, 1.4849216632824185, 3.8326735225794186, -1.343246767510758, 1.4619927253599858, 2.1543962346372334, -1.9138261306688267, -2.447538730128385, -0.3207244571991493, -5.279047513756361, -1.9887215901636672, 0.18481686173612588, -6.130770121883949, 2.847031794090854], [-1.2148126097275171, 2.212601835518479, -7.727268403171369, 1.9693762463673998, 1.3669715977062067, -3.5628942086383555, 0.48375804400836864, 1.1308111757696617, 4.25285198382453, 0.07928040149627924, -2.739560089346611, 2.564361662405427, -3.8665967535633503, 1.4765391680863673, 4.355934504114847, -3.652623278033061], [-0.6350781315784064, -0.5618721339327866, -0.7528566992006003, -1.1949001277822988, 1.5576954815711435, -2.0436891699688324, -2.6598907666665013, -0.49006038663674545, 1.865491600214221, -1.8826193375025935, 1.2830982648332714, -1.7413626777753612, -1.8684981016579214, -1.061656525059239, 6.530141948155566, -1.747211981677259], [3.509155681647452, -1.2829292914122665, 2.797942320232581, 2.600089449087493, -2.2115357383832333, 2.525899512763887, -0.18198016985504872, 2.469263835947107, 3.376095877271173, -1.1078840177562386, 1.1390622523623768, 0.4192720026240808, -3.4689670773954973, -1.1391609516837824, -2.0553774638209976, -0.4554161250625013]], "weights_hidden_output": [[3.1889364597828287, 3.1857346921580243, 1.1881585511520394], [-0.5942874428825161, -3.5152181254976553, -2.1362333600462318], [3.316514637706297, 0.11409958695622435, 3.8962774896084444], [0.9122641286027776, -0.21801265396684189, 1.4757557780275223], [1.3812593494209406, 1.1433424742082983, 2.9428753029397625], [1.3110092694485358, -2.6859891322137086, -1.9745843497956024], [-1.5533353148415157, 1.223021317322831, 0.8779980524398915], [2.0696936658858593, 0.79696504707723, -1.0628934190911954], [2.5390431676915544, -1.260587339225843, 2.47409344273203], [-1.1267347489197164, 3.456027431229664, 0.5750065014630052], [-0.5590915797879533, 4.82007759029611, 1.7170638857186902], [2.6336280461317982, -0.6546047370673274, 5.34386458343778], [-0.31903319112273276, -2.4645428911455114, -3.9172966800577202], [-0.445748980083619, 6.075783040793447, -1.1765154698034375], [0.6335014410227544, 3.4336410226791556, -1.6317252466541703], [0.2981157988945462, 2.068004279347753, -4.963134565762253]], "bias_hidden": [0.01131363420625773, -3.0048217915302864, -1.7433271150046785, -1.1043089891584377, -5.148135643769008, 0.25458768193348524, -0.5009220698802117, 0.5654051024141126, 2.0593145082854405, -0.9692816671028933, -0.788823156972638, -3.9179347596782437, -2.995299436344953, -0.9872730462220556, 2.6187984081762736, -0.3812584090670996], "bias_output": [1.2886956407989887, 1.1203284039607215, -0.3866364501068413], "generation": 253, "best_lap": 681, "fitness": 29.47437541808766}