{"weights_input_hidden": [[-1.961589147795976, -1.142986154873573, -0.4421191804957529, -0.5105023034682241, 0.39006157436246963, -0.4243628448936374, 3.3793063312512324, -0.8815386918021867, 1.1714749305195158, -3.1890394621627647, 3.4018840767372858, -1.6717050251758339, -2.2897054307268605, 0.3755432389466965, -1.3579876685995158, -3.7522320169894288], [0.9246688166444952, -1.3796695715478369, 1.2802211450882761, 0.50312803823399, -2.566656921690145, 0.22344450890492074, -4.9683734784538895, -1.6764089243205065, 1.9735661503190116, -1.5683415512673944, -0.16161111062039346, -2.581951400424904, -2.9803899383881, 0.6825579535432822, 1.0266818062009002, -2.4536841051720564], [-0.4540840570119228, -3.9948729686322686, -2.9161786082709846, -2.0050956112664955, 0.7045401855724036, 2.894677056508633, 1.65761383191042, 3.5132141032734867, -3.455199794291009, 1.0910133176074404, 4.039535550966198, -0.4360830962594091, -3.084748814617469, -0.2829764555666117, 1.9574602565293133, 2.3417492395460053], [-2.7193121324427665, 3.0720066666426113, 0.1378734330648996, 2.8560227567023415, 1.3860868141987035, 0.5792164869404779, 0.03405972922142231, 0.5923367879814929, 4.700479449154227, 3.4968067664205638, -0.16317040955980863, -3.118379839552412, -0.7910141406581146, -2.275496344397759, -0.3831543548192365, 4.599648943723717], [2.158995913356572, 4.51761826111219, -1.979066983245638, 5.370300878784321, -1.7293040590421107, 0.12168574575989732, -2.6868515197288256, 2.2578211960524346, 1.2442421351902249, 0.8847778837728777, 1.4637209674220955, 3.5398047497610445, -0.9632662664288806, 0.8973301920013599, 2.5736261861539167, 0.2052702478057991], [0.8262054445168927, -1.2323340708958674, -0.20713182229826577, -0.6182979498554053, 2.187288592535328, 2.6367734248047405, 1.1578765482137103, 0.6755235450012826, -0.09956474716464499, -0.2902322321448445, 0.8888698347725696, -1.1787179512074717, -4.158123663368685, -1.9307346224571558, 2.5220970738861834, -2.1143780856334655], [1.2116414671659175, 0.17842091052753928, 3.3981436719755544, 3.1228102885388846, -3.3783282917721795, 3.6776127964927694, -1.9330141437170567, -2.0876209154720233, 4.12615097312329, -1.1064515406433688, -1.5832358559485993, 2.3256502879851384, -4.25132895243973, -2.2500021411840723, -0.2731239294464049, -0.11835566476757081]], "weights_hidden_output": [[0.5589619160945303, 0.6962739850521519, 0.7722325610704411], [0.4826536945888731, -0.8586323908706897, -0.9345798575882363], [2.9403883254485796, -1.1828354717151583, 1.6737338877194257], [1.727257647330564, -1.933115277964438, -0.9782357107555147], [3.4307119839750713, 2.141153260050752, -0.7364971145474296], [0.07535898987460948, -1.6322438880360048, -2.687244685780557], [-4.743399237104842, 0.5376124365204469, 1.1862855866938502], [-4.160642260268892, 5.002208872585048, 1.0173559598659214], [0.7172202296797945, -1.9957974683119535, -1.7924029237491983], [-1.8037956928766596, 2.068360750303828, 0.5882441530266455], [0.30533647525110036, -1.1247005286754717, 1.3189846914265062], [5.187715092651353, 2.6911434623360146, 3.56845542170781], [0.2890879987592643, -1.5352844160388717, -1.116436155991396], [-0.16463845812071376, 6.442221575065955, 1.2904215017681457], [1.2327626540574654, 1.5651719294588382, -1.4677675271547632], [0.01401895740562533, 2.0072624922073143, -3.2933364811716217]], "bias_hidden": [1.3015013591774685, -0.48143922123821903, -2.1858520346271813, 0.6788139270701491, -2.1242950849579327, 1.3602231955466808, -1.351281059674163, -0.8840371556688222, -1.3756350612128556, -1.1282547862425736, -1.3802664614094962, -1.2285899522416943, -3.4206284121586434, -0.030810174287153408, 2.705499762256744, -1.2115295179597056], "bias_output": [-0.46393922071966454, -2.55518599744711, 1.657864777339661], "generation": 91, "best_lap": 682, "fitness": 29.460091642061535}