{
  "weights_input_hidden": [
    [
      -0.6786172836959652, 4.479987771563198, 4.899423230994135,
      -2.1102252446970353, -1.618282338516122, -2.5837420012230914,
      2.5154493880056785, -0.7917203768598853, 1.9687279682769114,
      -4.45862970778881, 1.1554643262639404, -2.2094590836558616,
      -3.710748104223578, 0.014109479903255284, -1.652878959453007,
      -2.423267943192152
    ],
    [
      3.712168385120075, -0.9475599095862537, 1.0016033811085838,
      -0.4574184243405278, -3.205777280642143, 1.26761575484213,
      1.25352551919256, 1.7454205763647868, -0.39758174679386815,
      1.8512401210061815, -0.0707760224018733, -0.7833547027241782,
      1.5859686995684357, -0.8093112390863231, 0.2754937028378907,
      -2.559134354543972
    ],
    [
      -2.762831855258408, -2.127623852318557, -1.8677876642303688,
      -2.5650499242497906, 1.0712866704807589, -0.989974252389183,
      4.003392185251455, 4.470879829213069, -4.8604552699541195,
      2.8081819404305657, 4.185508331960737, 0.43566830343450486,
      -1.5595183320891643, 1.006990090049741, 1.9475321740421552,
      0.21233122010311944
    ],
    [
      -0.05760912264520962, 4.729269923028185, -2.85772969592275,
      1.3729884109792532, 3.47574248305324, -1.132895019646753,
      1.6511449663276538, 1.070524522090759, -0.9907513155077695,
      -1.7231514088965885, -0.5701924703978434, -4.622725378883059,
      -0.6280730340001806, -0.44296561598554157, -4.839263262859047,
      3.516122456906068
    ],
    [
      -0.33700423826313947, 3.162865958553311, -6.979167029618474,
      1.8197289742256766, 0.6542460858151051, -3.5450646659417,
      1.008482748870812, 2.0208071714425415, 3.432136176125341,
      0.7315417020277399, -0.9394476904388537, 1.7268991268203941,
      -4.463585260376803, 1.696102562575749, 3.567287057694066,
      -2.7651566367625824
    ],
    [
      -0.439744858217041, -0.6088619075420253, -0.46839849540386314,
      -2.10156898126135, 0.027116554992600128, -2.4439581121906233,
      -3.817944744743696, -1.7007467983378919, 1.5563316647417387,
      -2.757684109665631, 0.5183315544621351, -0.78206338298747,
      -0.8189990783703749, -0.5279247722282099, 5.433438210433619,
      -0.9956012570024189
    ],
    [
      3.6972580662900825, -0.1625988511985358, 3.2786799325099265,
      4.314028260163749, -2.1595425561827652, 2.0465595252097684,
      -1.3621295797592943, 1.2597666991942205, 3.1147039318681453,
      -0.6795640836804877, 0.3010623994962362, -0.15941654497679772,
      -2.550292442172113, -1.0719118630187943, -0.8551716986181734,
      -0.6048371628600138
    ]
  ],
  "weights_hidden_output": [
    [3.4768515053946896, 2.932037772878839, 0.7717494414906683],
    [-1.5296075276610477, -3.7193855980395503, -2.2015501033322025],
    [2.7170372407034704, 1.0688610464736232, 2.78872438947679],
    [1.6710087746964812, 0.8577876063691894, 0.7746627311192833],
    [0.027515200230443182, 1.2971314744305524, 1.72574204227024],
    [1.8180673861490309, -1.466794984907538, -1.844771235521157],
    [-0.3535540556333788, 0.931573602087325, 1.3969453180038738],
    [3.4197022570228075, 1.3965034703102983, 0.24319946470670273],
    [2.12653820888133, -2.448624665335112, 1.2966960420035325],
    [-0.8679183804515503, 1.2583205193453306, -0.004470512888597178],
    [-0.04246881769098973, 4.778864194714692, 1.450118862733911],
    [2.6703717519386423, -0.2246895740511624, 4.386943603162453],
    [0.3010186494387751, -2.639454457877334, -3.5791279827597684],
    [-1.073645196275683, 6.178182744245285, -1.297053421821067],
    [1.1389907198240294, 3.5598626092427, -1.6819622704933501],
    [0.060437496852535966, 1.4537832945624778, -4.398371697934546]
  ],
  "bias_hidden": [
    0.7780245891101203, -1.7061659631357822, -1.7742815183831724,
    -0.5225109765309507, -4.293876359000745, -0.21667748254180252,
    -1.2490610878447974, 0.6628850833754851, 2.4528687218199496,
    -0.7786888388786253, -1.7167002450710878, -2.4332898642628678,
    -2.6131478531995467, -0.8366715948595029, 2.1818868840584162,
    0.06767405189054074
  ],
  "bias_output": [
    0.48445422491656465, 1.3831260393784417, -0.25422510433553724
  ],
  "generation": 251,
  "best_lap": 0,
  "fitness": 9.606405663420363
}
