{"weights_input_hidden": [[-0.37224681280659744, 1.3064164379361212, 2.1789680874358517, -3.2746313098780213, -0.44810684581380267, -2.490148427349251, 2.330063092268498, 0.150992916719841, 0.7944278732515071, -3.344228040868498, 1.425295782932893, -2.182389219357181, -4.383481787682505, 0.6127797464027273, 0.17792541909361193, -2.1432626064493236], [2.5156776978979756, -0.3109703380277389, 0.7610945880967183, -1.2786695755672157, -3.4561622948579176, -0.4062601826338007, 1.0846741625933203, 1.7637410292225864, 0.2689647935366219, 0.4917082466368204, 0.30868745760481375, -1.2866237125242794, 1.556020300789219, -0.4192206368427318, -1.063459803097413, -3.6865668866436536], [-1.3811353891785156, -3.013171082926357, -1.2366134091539758, -2.1074581435644393, 0.8549872866529057, -1.4458911072853695, 1.7854483061935214, 3.5650662535656767, -4.490293387104347, 1.076665227307691, 4.605399970775567, 0.2872275523846336, -1.7761289284562327, 0.9957051172083662, 1.397343165979409, 0.9756170974646067], [-0.9218158026563112, 5.702800212375278, -2.1209883923816846, 2.163351553951213, 2.2177301568124164, -0.5742699189287671, -0.13698170851792024, 0.20750249804728105, -0.8953316079254391, -1.02687156404799, -1.4278030937910888, -3.0858005233770602, -0.11381217775882116, -0.4138623213225622, -3.7034817150291994, 3.9248772461504364], [-0.6567267459774304, 3.2331305407993134, -4.158328727252228, 3.401769537504484, 0.8822239401527967, -4.613364987739991, 1.1038627844009499, 1.466791867707276, 5.151234419730775, -0.057341794242913385, 0.31830536080575156, 1.221203490070579, -3.4586980346088323, 0.7837264852705571, 1.1457974430552427, -2.52101079741266], [0.16017647167925209, -0.8357712349783584, 2.97696611764383, -2.0236185960541317, -1.2162521009545457, -0.8698423285345929, -2.3951327579694732, -1.7849486554907912, 1.6655823558692846, -1.5486643583951736, 0.32670666409125226, -0.702405708044228, -1.903743549887031, -0.5088349031244407, 3.9530604995410386, -1.8653623936192465], [2.9896803539290544, -0.23388607689113894, 2.070724894203159, 5.375883778547702, -1.1145680356156238, 1.6652038703862377, -1.767476824639945, 1.6138835019878528, 2.901602538234969, -0.7170289398530718, 0.2564448359200079, 1.065329652136533, -2.93992155796471, -0.028737548980188488, -1.6782602193223322, -0.44031878716734557]], "weights_hidden_output": [[2.7356481194970823, 2.7891349593238854, 1.0790447996674026], [-1.1310507267711456, -3.6568895434802586, -1.8958106255135228], [2.9169364939305913, 0.06468336817607967, 1.6354488689395765], [3.2363079236854424, -0.3704965230323904, -0.03190167612330347], [0.9416948453199911, 1.9794188280536438, -0.039687933545672294], [0.5756785563947971, -1.6518390265719032, -1.4769285912507075], [-0.9725906173944462, 0.5469756001705754, 3.036899833744807], [0.7731344612571324, 2.6590352063273843, -0.4782162745819808], [3.6470084119127986, -2.185126755987059, 0.8389330914416686], [-0.876607548637453, 0.5187222700372169, 0.047505881216334145], [-0.05458042781246795, 3.0161492175588656, 0.4018103025500994], [3.128794156364789, 0.1030131571146835, 3.9427935051242815], [1.2506441995528823, -1.2416232600835744, -2.3865305244526476], [-0.46428853439449463, 5.472166973551999, -0.3109649801528169], [1.3221838636883472, 2.608420922662358, -0.9086041544999968], [0.40174760390907943, 2.23975765667973, -2.9828572010601255]], "bias_hidden": [1.1160190606703997, -2.969811502181021, -0.7460703759660815, -1.376608861652687, -2.999970835450032, 0.6740714445449086, -1.0943280161927982, -0.10295903377143723, 2.006827579431624, -0.792180676729663, -2.007319570679806, -2.567160972678854, -2.7983322998844598, -0.8254862265686611, 2.3256532386979707, -0.48958379528562695], "bias_output": [0.43002178465459373, 0.11338199585534103, -0.929938963539928], "generation": 225, "best_lap": 682, "fitness": 32.52722140729023}