{"weights_input_hidden": [[-0.4026840806041703, -0.3120336397896246, 1.080188604166309, -1.6448016529279046, 0.5763555027749254, -1.11845201301822, 3.079738426636382, 0.42884419165881893, -0.16487116735613783, -0.7733525782300683, 2.0282196476368357, -1.8300302807077657, -0.14491110251835065, 0.41115395518446984, 1.0195611476225144, -1.1020019750559569], [0.555918020961106, -0.5468768281102239, 0.4546596535499685, -0.6961399305849593, -2.2165142412198575, 0.6817059346277096, -1.8886100756751103, -0.7588422453611363, 0.03653012945422596, -0.2527868940807124, -0.2646565855217192, -2.050423848239286, -1.87563610571447, -0.027995014906067595, -0.4629514161182596, -2.2102090892111947], [0.60942890240128, -2.4162341792212954, -2.3682714582108053, -2.2216860055485217, 1.618690461289624, 0.6274860008830878, 0.39081563377678186, 3.206854703198757, -1.6542760413916926, 0.9210940341147381, 3.3273683300556223, -0.8865127009387258, -1.2977601243134333, 0.466905176061883, 0.868751239733759, 0.18528570396675081], [-2.4894001570545115, 4.394871512624636, 0.23662584870315295, 1.529625384861818, 2.3537072824944794, 0.21868786832064058, -0.6567250043320134, 0.8470532221405271, 0.7784054966656329, 0.4898488929332523, -0.5304766269197796, -2.1165470499853516, -0.5216814656309052, -1.0567882461895808, -2.6227813977573113, 3.686363066494231], [0.2823354232346156, 4.7913813276772315, -3.5034104352864004, 3.894398674916579, 0.1127670802077437, -3.0004835357626938, 0.018991271596202952, 2.1228154630403444, 2.02472840933773, 0.3601045627911141, -0.21465563315287156, 2.467143944269365, -0.4210637775016265, 1.2979740860723343, 1.211217071144586, -1.4176167864912261], [1.8340784236241174, -0.4201779689508689, -0.0033273828070555234, -0.9728633403319696, 0.6370111038660806, 0.25708151422433334, -1.3957033471981513, -0.17334711786449164, 0.6931569562440714, -0.4721156180603049, 0.36820845263416313, -0.7394353020327991, -1.4240477162223315, 0.36977009858269605, 2.143228278024117, -1.4490095075049902], [1.3892143223482243, 0.01503898437675577, 2.520769090722083, 4.029691821231572, -1.563494256204743, 1.0886568405693757, -0.6288479674665829, 0.0730568264396305, 1.7469411133805663, -0.17543448576730994, -1.4398830331345216, 1.5308124452350247, -2.0176524128724935, -1.6391951169295513, -1.2764361546922265, -0.36842900313866395]], "weights_hidden_output": [[1.658809699502379, 0.4135730654258949, 1.186499143330136], [-0.47182059870558724, -1.0598084972989408, -0.4666992107194783], [2.157497528944702, -0.6037687602292564, 1.9830765506158519], [0.9808953192028897, -1.0380203472341964, -0.4146447579476929], [2.9118703265089874, 1.578844465502046, -1.1384031122035618], [0.22581994355586765, -2.116461774448497, -2.75499589661292], [-3.380765082568982, 0.19083942312416086, 1.4115057518342344], [0.05452628156644919, 2.3731281625940657, -0.8637570145688525], [2.0807473205211044, -1.554532643565901, -0.5406887018735004], [-1.725205668310351, 1.4076533647186706, 0.03929620556044358], [-0.09448154060325643, 0.1774489236066943, 0.7548540733355529], [2.395610133240811, 1.5842052614051971, 1.6576285461346494], [1.040343540582736, -2.7750598289698507, -0.5065205528361627], [-0.40499959634132776, 3.4693531358105907, 1.3751763772459664], [0.9280482569993955, 0.40718371545156296, 0.9342140433490981], [-0.009252688775899298, 2.8299385095150846, -1.996105768643745]], "bias_hidden": [1.3407678697756764, -0.9953099451637024, -2.959189480432773, 0.4885950504895582, -1.9766547238629064, -0.10709074307250477, -0.9030725341633359, -0.7989297356197698, -0.8090478302823337, -0.20317085611997623, -2.1608830241140207, -0.11420018224966594, -2.7912253398392286, -1.0426206998740866, 2.688027586217732, -1.0967186574454104], "bias_output": [0.7444791692453075, -0.6161187435614008, -0.26337918873426536], "generation": 18, "best_lap": 679, "fitness": 32.49662973827418}