{"weights_input_hidden": [[-1.5983381720617336, -1.6679732415792785, 0.7319266367639442, -0.4314121137399284, -0.1702392567193709, -0.04256910870939523, 3.698658913812649, -0.033849852237663014, -0.3609501016226323, -3.1987407432930226, 2.492307318653306, -1.8358181732151837, -1.3000396466212831, -0.6995576797831083, 0.5178000971432952, -2.1510933812611874], [1.1250820015126162, -0.5213188088538441, 0.6544554954298067, -1.2110580171206466, -2.3292767737082896, 0.1401715433614273, -3.2011221790293547, -2.2976913265324925, 1.7623588961628434, -0.09573443623827717, -0.18833184206335257, -2.5015313451669803, -2.8579592184775278, 1.2471275815019194, 0.2744156876616799, -1.869235568107265], [0.49035760307691995, -3.0758719079878243, -3.7616545555581995, -2.5940092149104705, 0.817553613103048, 2.0220622011444185, 0.08535762206299552, 3.6400585335638707, -2.5017593060398626, 1.1854369306174075, 3.77486939091612, -0.9748831474601032, -2.0812915976833937, 0.6030403819668104, 1.5792740338319478, 1.2798432646539268], [-2.2021680318513015, 2.8325319283410844, 0.6637501406874757, 1.4608226122311145, 0.7790859310299489, 0.9014945700389037, 0.4883897580544029, -0.4842731385059533, 2.791745261295219, 2.562157232298208, -0.13225085769064698, -2.3152666030055595, -0.5598704487220219, -2.485847220766413, -1.456231348333371, 3.939201065917186], [1.2388978249807208, 4.6876783230779875, -2.6362931322314362, 4.488947711806806, -0.67840688025419, -1.7157937142086173, -1.29822032083704, 1.4363196181096676, 2.5819481776294957, 1.2158782629449436, 0.6291983945593256, 3.3724023634500506, -0.5274195877462743, 1.2506900594590167, 2.7952643089044655, 0.41768180069572547], [1.2661637553304128, -1.6945585959832485, 0.720341023858504, -0.40954093251126844, 1.459124461604342, 1.4987691400770886, -0.011909067923885852, -0.031408949525751684, -0.992544081424807, 1.6036607336785318, 1.340583666169172, -1.00189848231769, -2.780234960813714, -1.2717921418059794, 1.188328505369085, -1.629624509307456], [1.7191505939048222, 1.5176090775489794, 2.7623198558214463, 3.2981815982254217, -2.850547465821637, 0.9335146031144395, -1.2339850436964386, -0.5705169909902297, 3.1829039044715004, -0.45087179229089036, -2.5741209532912572, 2.7423789985597327, -2.950040650182708, -2.445146066815897, -0.8254055513118033, -0.8038030768514057]], "weights_hidden_output": [[-0.47320581683102003, 0.8251785947741997, 1.6222138528306023], [0.4323937000204289, -2.297742047528831, -0.6561035278374421], [3.252458030592342, -0.6952140506383634, 2.1805011670744503], [0.9352670974810526, -2.1428430065412427, -0.5683952813555935], [2.315153128500313, 0.6173805973202544, -2.1097421211728506], [1.016740459264843, -1.3197377682928977, -1.8642796834563171], [-4.532041953904747, 0.14969717209686728, 1.1344110329112593], [-2.8883943414128526, 3.6896192854597922, 1.1016218444342443], [1.8676060030279198, -1.7984279978076527, -1.1565428010138523], [-1.3404238082339501, 1.859192259628386, 0.7907217275336934], [-0.17056880782842523, 0.1745168115236866, 1.5680620102102418], [3.460199513581585, 1.4338959592630685, 2.11676768068428], [1.2920916160717206, -2.2002171213088886, -0.33050020697051086], [0.043039550947344296, 6.497684152077452, 1.4625459229919633], [0.7576517027829865, 0.967893047034869, -0.8364993938941351], [-1.0070598260524084, 2.6383813263485223, -2.3236658008124254]], "bias_hidden": [2.259725238337137, -1.1881627174942848, -2.5874299479783485, 0.6599830836493324, -2.0492275270827207, 0.3649552878750423, -1.6665492618818631, -0.6603138616082126, -0.6477208491217268, -0.48587230388721336, -1.1881605186446085, -0.7827546025666606, -3.5831275256141857, -0.15456966106965953, 1.3791675198757414, -1.5927498028548515], "bias_output": [0.10409428010202659, -2.273288499823895, 1.6102684737958761], "generation": 26, "best_lap": 677, "fitness": 132.47619229839393}