{"weights_input_hidden": [[-1.9419700687055885, -1.8581147952169106, -0.2238647833100783, 2.308793581664764, 0.6104208775117734, -0.04045888857013169, -2.549769644939973, 2.2062138752520077, -0.5344264592920297, -1.123056825572517, 0.6997887890828965, 1.9969543723569776, 2.0205346431067, 0.12203130375259336, -0.14966746728428684, -0.15361459704437763], [3.2301667562607683, -5.57490881156488, -2.985839229981912, -0.8756802503708112, -2.3048565007485537, -1.031748815265225, 0.1871125021555922, 0.7236913034677821, -0.7576717851863236, 0.5596227303401877, -2.2656043847129332, 0.36784456435257745, 0.3463628995862023, -3.3067626757013153, -1.5537011538141594, -0.7164247003982616], [-0.26824552825763637, -1.2046104169436225, -1.2031450699782271, -2.4963974762896783, 0.20814812106973038, -0.18353871592466928, 3.2711565064250787, 0.6324600751797251, -1.2595375165858198, 2.8919844871774276, -2.9799101071266882, 0.09169389927031539, -1.1208962545669345, -3.055910614152129, -0.2058803457864871, 0.28188968142224946], [0.5935044048820335, 0.5443396349034113, 0.9600548526820148, -2.635796203081714, -2.432140641654215, -1.2723206301170407, -0.1970597199711785, 2.437562547495466, -0.46114788052770955, 2.2669917170905745, 2.5072636624113764, -0.9748711909098763, 0.9720584621883134, 1.3249808272240884, -0.12634334391904445, -0.2572033249353743], [1.318694194610449, -2.7946294681764456, -1.0823172513831085, 2.1004401826981947, 0.36261514687788543, -3.3922266567951973, -0.5920273367540055, 0.1466178704519483, -0.43007058687513994, -0.8864859710157714, 5.0406926056414445, 3.158394891584624, -2.156211552358804, 0.6584076460525115, -0.6311623791147533, 0.0758066788436576], [-2.16901592742221, -0.024967377973497185, -1.580345995609282, -3.8901906765612204, 1.162005183357497, 0.13505562927836595, -0.28052830723236855, 0.7618268096948952, -1.740028838412503, -0.3448128927679045, 3.219490974236634, -1.181015270243436, -3.4744857566699006, -0.920306292769619, 1.245211786948306, 1.5439315791648656], [-1.014320241109726, -0.22251505553489348, 0.28226462050867546, 1.5352928531833063, 5.3355672087866886, 1.269215535899905, -0.5530307205681073, -0.8852277815591616, -0.8031265306770702, -1.0808371210368943, -0.8824687519165063, 1.296849380775281, -2.9839860298604686, -3.306009891211872, -1.1119343405834476, 1.3614602775098903]], "weights_hidden_output": [[2.3390516964553933, 2.1514913913005027, -0.40161135915941804], [-2.071318873889632, -1.65604242388553, -1.4359259984632777], [-1.2192282701274177, 3.5486034229106393, 1.2824778923319182], [-0.2636944963365047, -0.2841920777273947, 2.964276988619429], [0.934700011581056, -1.9104060765374493, 2.344495069487148], [-0.11507196136655778, 0.7686511210050851, -2.947880839363718], [-4.043524075219135, 1.9008605165042765, -0.5695664492240716], [0.8019169124983403, 0.11544258575106069, 2.1886894932472005], [0.8171245259492725, 2.5839803712165286, -1.0301608238869737], [-1.280553092853282, 4.385605429129502, 0.6209692777649012], [0.8966304728343364, -2.842353281391401, -2.2323545559375235], [1.4611157697689934, -0.39592675735676935, 0.2946354270878058], [-1.4604159766484928, 1.160742995005825, -0.8146585388555909], [-3.4496682733158437, 2.9354134057878096, 2.9466616819411766], [-0.924427065213818, 1.3077026626790729, -2.68062195923718], [-1.125951227688709, 2.069390707290353, 1.8392177524490265]], "bias_hidden": [1.0912297571846918, 2.9573517300714407, 4.357780558323991, -0.27674092955634727, -2.261731441226898, 1.1430432208963266, 0.24127896795446077, -1.1357585728984723, -1.1194781058384844, -1.1176672782964128, 0.2142665242015785, -1.2176460428679468, 1.3690953339934246, -0.2571644169787325, -1.2910191062761, 1.0778963825498438], "bias_output": [-1.3173953567967758, -0.08148411049287071, -0.1891139300907737], "generation": 207, "best_lap": 2090, "fitness": 19.666188721472697}