{"weights_input_hidden": [[-1.959307747299229, -0.9656027799352646, -0.8100661692522668, -0.9729358924182944, 0.2333555371740639, -0.33871680311218305, 3.355727658424134, -1.031565667772622, 0.2503163301605089, -3.6349939613753866, 3.135481596631189, -1.6829719591448067, -2.188653703638627, -0.08820609634357729, -1.1238228826470031, -3.7550097098672195], [1.3426574442956998, -0.8470790858127266, 1.2749003783416635, 0.1545714743236074, -2.556592873544267, -0.10370723909288736, -4.491301816166665, -1.3066755632148428, 2.178034207922529, -0.5382193193168892, -0.23208923967711056, -3.427483362350298, -2.9940657957823036, 0.5166686100676086, 1.3326721760851175, -2.900773472870212], [-1.0058693611222382, -4.114602893708783, -2.8286415724754375, -1.7217812294508437, 0.4767579856163223, 2.234804243152722, 0.8346710677423377, 3.581701669056462, -3.5600033619037403, 1.5957415096387024, 3.7785815027843106, -0.5141427457090514, -3.0868625372578227, -0.23047124861553175, 1.7961638574032694, 2.1080707965488017], [-2.6816667300647965, 2.9991362159290578, 0.4573012765042788, 2.4789586168786326, 0.9569955237161549, 0.4458370826661981, 0.4607965156968357, 0.33415213418541434, 3.9067284868215206, 3.2194884602364047, 0.448231847732383, -2.8644314915075517, -0.5332964697367752, -2.6227993072221523, -0.4820220126411995, 4.204518695526313], [2.3390333868789144, 4.052948612550196, -1.3564243882133131, 4.238437532896494, -2.058937194299568, -0.18142814170015453, -2.8763354423160905, 2.185786049577791, 1.7156284313818921, 1.2131958950641726, 1.1253443823407034, 3.2882835014024825, -0.5874074341541192, 0.7539739971029116, 2.703607739447446, 0.6991053206182938], [0.9574657956292925, -1.4103062265582578, 0.029496979722462457, -0.7211690029054036, 1.7187564289551958, 2.895335285719516, 1.1728094563394793, 0.05251737915411976, 0.2125274147580972, 0.527424690088857, 1.079515693690036, -0.5813393805649867, -4.16584043531537, -2.096091759953558, 2.6956101600057853, -2.429657525627244], [0.8766017262409749, 0.7656665871217293, 3.164973161780286, 3.398513961976517, -3.4723499773418403, 2.942266340877222, -1.8271797041573667, -1.8166533338802848, 4.0743757389238295, -1.616100315082434, -1.4206544972070212, 1.5748896729993485, -3.9211020291915464, -2.2984494340782033, -0.14513076709857348, -0.08536328925286918]], "weights_hidden_output": [[0.4605715508391922, 0.8421198470061361, 1.7794495454797898], [0.0755887881731151, -0.5793549661951923, -0.4118851063689818], [3.3402469709129012, -1.2124961970644352, 1.5458985814265331], [1.3667618422141932, -2.291011643215653, -0.8626614364845557], [3.5041000874978243, 1.9988810655738338, -0.7787105709380423], [1.1783926378377318, -1.0102158800859884, -2.6914344415911438], [-4.318595077494512, 0.41849834967722416, 1.1256327035816307], [-4.31489304490756, 4.261326099238016, 1.167271937367655], [0.39701262580473895, -2.383461025196594, -1.7073619506842064], [-1.9319110846735708, 1.6027729053256978, 0.6348086253364353], [0.5630612769179466, -0.7055539668798312, 1.5494253013168517], [5.590040827725595, 2.7719681891104795, 3.4203567384745024], [1.0164617413009653, -2.0654913828400097, -1.4050717619006101], [0.13332474534407485, 6.32153271047728, 1.5242780218536827], [1.4362621888859135, 0.9857687511871117, -0.878575264438055], [0.01990121376015952, 2.5704237045119704, -3.1481578750786827]], "bias_hidden": [0.8360265639343286, -0.7250076769740105, -2.7688453814431413, 0.6844956989321116, -1.62448803921711, 1.3585745197123358, -1.5868242900027634, -0.34037440040705996, -1.419041957034032, -1.1791314093383716, -1.1883219498124102, -1.4511317629330855, -3.353884769801559, -0.2626909565979282, 2.5310780578633647, -1.4475849244416272], "bias_output": [-0.7718779422168786, -2.63438428623773, 1.4647233399131772], "generation": 86, "best_lap": 672, "fitness": 129.6053310694287}