{
  "weights_input_hidden": [
    [
      0.4829437383430016, -0.2677096524581962, -0.20444544312018673,
      -0.4324914582655858, -1.185243423823499, -0.5246140630317315,
      0.8250525457942903, -0.3499422030526919, 1.1735088963257854,
      -0.819661914489811, -0.6569023905277424, -0.3537138510531079,
      -0.9882991976442469, -1.6117390830734342, -0.9661115979973269,
      -0.08223019231181546
    ],
    [
      -0.31022009364094333, -1.0731359083066874, 0.5096827742348705,
      -0.8183250477672082, 0.022916222296948015, 1.6108906919074009,
      -0.10880003750235233, -0.04402841306000711, 0.9845860432323607,
      -0.7059060954117947, -1.1852679115754485, 1.575961318972242,
      -0.3287835368731654, 1.4031147168475622, -1.3539559924134097,
      -0.6132329733895032
    ],
    [
      -1.269189612680521, 1.4804539050195393, -0.49684657432549095,
      0.716317719528429, 0.3566195727925237, -0.09887170066844828,
      -0.46676682813985526, 1.0165961271806367, 1.0703279749357122,
      0.3719138180318964, -0.6391667654702676, 0.869106821165598,
      -0.43486752878274904, 1.287232470329966, 1.501754595489552,
      -1.4375566554284016
    ],
    [
      0.400468194091506, -1.0566295138646606, -0.633697877412233,
      1.1196693421471204, 1.5046038627401237, -0.20436664035273397,
      0.9821056456208814, -0.38410949224566004, -1.6179069566745983,
      0.242471076098626, -0.07449283958934923, 0.17801154585726967,
      -0.6508478117197924, 0.1919597540923742, 0.4131424150797065,
      1.2951500095943476
    ],
    [
      -1.0256810402593866, 0.9128762465961815, -0.3632742982216876,
      -1.3553503419775559, -0.9138002869237579, 0.9230472985044323,
      0.5638437433845832, 0.7529712977774895, 0.7876747747456787,
      -0.2721359539047632, -0.47908086990059995, -0.07591456176409841,
      0.9796825277673461, 0.8211589027068504, 0.916253051384049,
      -0.6324983467204448
    ],
    [
      -0.7368546060450487, -0.10171417925652779, -0.7827471278694546,
      0.0038447797238244106, -0.16565305562978724, -0.3453195386361208,
      1.4905778570790955, 0.3689695382438449, 0.3562560888699146,
      0.22594925802900995, 0.21541743913469533, 0.33687068245918944,
      -2.4083788700865623, 1.3250058650774408, -0.49432372528021545,
      0.8994584914033773
    ],
    [
      1.546588766562953, -0.21857888669756625, 2.1775851615529453,
      -0.2868973730304873, -0.0782678178073865, 0.15882676854170003,
      0.9856949023294048, -0.7869173296632712, -0.0791457434572784,
      0.8124307578767099, -0.38016037285620935, 0.6555445830167704,
      0.8414565555743905, 0.01565408487773668, 0.07755131811058275,
      0.28195714525708165
    ]
  ],
  "weights_hidden_output": [
    [0.4453979925249097, -2.3296572912382465, -0.08966207356502029],
    [-1.5558174634355515, -0.4439752294987572, 1.8315334979292224],
    [-0.4657775371775284, -0.3487823651238976, -0.6199883255380899],
    [-1.9954443968918665, -0.7946807078510364, 1.0079070837321158],
    [1.1281402829805391, 0.6619258842978217, 1.118080283753686],
    [-0.16424195683406742, 0.3492730635482842, -1.2179066046549558],
    [-0.2132639171945081, 0.7888408510881656, -0.059942369592289796],
    [0.8620300228250156, -0.702676473013695, -0.1100000368198527],
    [-0.17925444098886212, 0.556162452853427, 1.3400434069448846],
    [-0.20287090994346083, -0.3921263117345278, 0.26754377445026495],
    [-0.8065814839794977, 0.6641343849268714, 1.416220446046079],
    [1.5619263439226343, 0.6624945896001755, -1.6564492750775357],
    [0.4766654942910699, 0.5466568412448528, 0.4419310183388877],
    [-1.077621080034622, -0.7034557998209022, -2.175589726663409],
    [-1.0733590916977385, 0.43635360197934725, -1.2302515381910795],
    [-1.450175958963439, 0.8726571656958051, -0.04619531011102602]
  ],
  "bias_hidden": [
    1.0955890353183972, 0.2929226774367753, -1.5167765630419123,
    0.053927685217695545, 0.43840457579572006, -1.5836713270732146,
    0.6037132705902597, 0.8848048501651455, -0.6774103031731179,
    -1.3611945735822613, -0.17443935954145665, -0.3823635659890347,
    0.6414921995911488, -0.003953285731151966, 0.9108115821895794,
    0.027880022961813244
  ],
  "bias_output": [2.3124791374973723, -0.2835418191597963, 0.6299826338738617],
  "generation": 1,
  "best_lap": 0,
  "fitness": 2.570834362299306
}
